{
  "inputSize": 3,
  "outputSize": 3,
  "actions": [
    "chase",
    "flee",
    "attack"
  ],
  "features": [
    "dist_norm",
    "hp_ratio",
    "recently_hit"
  ],
  "layers": [
    {
      "W": [
        [
          -1.2883329183715901,
          -0.39409702967961197,
          0.371632144831456
        ],
        [
          3.0482906438493615,
          -1.8020151807316298,
          -0.07202745338963991
        ],
        [
          1.1863464449615182,
          7.209572812499996,
          -2.333607997148664
        ],
        [
          -1.5523394489139053,
          0.14262794598591638,
          -1.2772703735875435
        ],
        [
          0.23946790390917597,
          0.047515418137726424,
          -0.4126260389235402
        ],
        [
          -4.461606300637721,
          0.8039761966489802,
          0.17771101287870614
        ],
        [
          -1.983509361007862,
          -0.36033546978721565,
          -0.36309559371594285
        ],
        [
          2.2957642690915923,
          1.767921511288602,
          0.8972166781359113
        ]
      ],
      "b": [
        -0.005017087794840336,
        1.4168541431427002,
        -1.4580758810043335,
        0.23557889461517334,
        -0.27365967631340027,
        0.9462751746177673,
        0.0,
        -0.8263428211212158
      ],
      "activation": "relu"
    },
    {
      "W": [
        [
          -0.11645591975850021,
          -0.7300078408712548,
          -0.43370720882373603,
          -0.8363351821899414,
          0.04880407080054283,
          0.3787783920180437,
          0.3399699330329895,
          -0.428706975066951
        ],
        [
          0.08695632224956913,
          1.9036486374529609,
          1.641848197551219,
          -0.9078768563679511,
          -0.44095034642546527,
          -3.5208697070146524,
          -0.42873817682266235,
          1.9923205689424868
        ],
        [
          -0.2855311755547902,
          -0.05997734204630343,
          -2.1865628433887445,
          0.02867083972184151,
          -0.7847139215924768,
          0.9474871715352036,
          0.21299156546592712,
          0.9379547396039615
        ],
        [
          -0.08525475599474455,
          0.8374545336983746,
          0.8481835531036281,
          0.626488415094829,
          0.748320548932559,
          1.2381730119898893,
          -0.4602954685688019,
          -0.825995529808601
        ],
        [
          -0.504204669301052,
          -0.5156040645600433,
          1.785377036126802,
          0.13996931223650216,
          0.6236650839615353,
          0.6765174480767511,
          0.6682775616645813,
          1.3147514359796126
        ],
        [
          -0.8007379758603003,
          -1.794621991751731,
          5.587195589149499,
          -0.5899442132131486,
          0.35418511516363843,
          -0.17486250059583078,
          0.26606428623199463,
          -0.5434367969149844
        ],
        [
          -0.18027748145535796,
          -1.209240914948908,
          -0.7041358004608054,
          -0.9812147617340088,
          -0.3381499648094177,
          0.567272601363427,
          -0.34411412477493286,
          0.8574698851181201
        ],
        [
          1.2109940923280174,
          2.049443678040523,
          -0.13944220700323354,
          0.009095030032472771,
          -1.2399343792571342,
          -0.8043036374446136,
          0.04029791057109833,
          1.0654872966503632
        ]
      ],
      "b": [
        -0.0024351871106773615,
        -1.2149416208267212,
        0.40576136112213135,
        0.5288897156715393,
        -0.21659161150455475,
        -1.6304014921188354,
        0.10977230221033096,
        0.5431885123252869
      ],
      "activation": "relu"
    },
    {
      "W": [
        [
          -0.0028457231516105267,
          1.9537647060079268,
          0.9566385762226597,
          -1.2335181895122493,
          0.3412273378281197,
          2.015959920332576,
          -1.1333501509435502,
          0.8282427321997995
        ],
        [
          0.035569870835834225,
          1.5790166492378566,
          -1.2970182521834446,
          0.20480344123273456,
          -1.070244560446484,
          -5.3090784428320745,
          0.812533056249705,
          1.649926906293426
        ],
        [
          0.46678426929441863,
          -4.680677406652587,
          -1.2913501727221126,
          0.7174691876334504,
          1.8184808439963154,
          2.377862609919858,
          -1.3693966153758357,
          -2.8533829709674086
        ]
      ],
      "b": [
        -1.3476238250732422,
        1.1921919584274292,
        0.155427485704422
      ],
      "activation": "softmax"
    }
  ]
}